{"epoch": 0, "layer": "Dense_0", "weights": {"mean": -3.955170541303232e-05, "std": 0.010958020575344563, "max": 0.055881667882204056, "min": -0.05923954024910927}, "bias": {"mean": 0.0006444901810027659, "std": 0.01044650562107563, "max": 0.02848898433148861, "min": -0.028357427567243576}}
{"epoch": 0, "layer": "Dense_2", "weights": {"mean": 1.5869474736973643e-05, "std": 0.04199344292283058, "max": 0.15050162374973297, "min": -0.15576931834220886}, "bias": {"mean": -0.007310371845960617, "std": 0.060887742787599564, "max": 0.08962905406951904, "min": -0.10700594633817673}}
{"epoch": 1, "layer": "Dense_0", "weights": {"mean": -4.1980314563261345e-05, "std": 0.011584430932998657, "max": 0.06371596455574036, "min": -0.07036354392766953}, "bias": {"mean": 0.00105008773971349, "std": 0.01182512566447258, "max": 0.032258205115795135, "min": -0.03142141178250313}}
{"epoch": 1, "layer": "Dense_2", "weights": {"mean": 1.5870300558162853e-05, "std": 0.05459761992096901, "max": 0.19654656946659088, "min": -0.19806116819381714}, "bias": {"mean": -0.007310365792363882, "std": 0.08829265087842941, "max": 0.13791459798812866, "min": -0.1318182647228241}}
{"epoch": 2, "layer": "Dense_0", "weights": {"mean": -4.518663990893401e-05, "std": 0.011940241791307926, "max": 0.06727287918329239, "min": -0.07742522656917572}, "bias": {"mean": 0.0013646637089550495, "std": 0.013547168113291264, "max": 0.038761015981435776, "min": -0.03851689398288727}}
{"epoch": 2, "layer": "Dense_2", "weights": {"mean": 1.5870953575358726e-05, "std": 0.060854047536849976, "max": 0.21851353347301483, "min": -0.2177378088235855}, "bias": {"mean": -0.007310329470783472, "std": 0.10793233662843704, "max": 0.18203896284103394, "min": -0.16237130761146545}}
{"epoch": 3, "layer": "Dense_0", "weights": {"mean": -4.7952376917237416e-05, "std": 0.012188318185508251, "max": 0.07101215422153473, "min": -0.08143444359302521}, "bias": {"mean": 0.0016250219196081161, "std": 0.015391673892736435, "max": 0.045000918209552765, "min": -0.04505414515733719}}
{"epoch": 3, "layer": "Dense_2", "weights": {"mean": 1.5870773495407775e-05, "std": 0.0649150088429451, "max": 0.2319224327802658, "min": -0.22964978218078613}, "bias": {"mean": -0.007310372777283192, "std": 0.12507878243923187, "max": 0.21962569653987885, "min": -0.19982661306858063}}
{"epoch": 4, "layer": "Dense_0", "weights": {"mean": -5.222931213211268e-05, "std": 0.012379552237689495, "max": 0.07373812049627304, "min": -0.0839814767241478}, "bias": {"mean": 0.001848340965807438, "std": 0.017321519553661346, "max": 0.051230527460575104, "min": -0.051503736525774}}
{"epoch": 4, "layer": "Dense_2", "weights": {"mean": 1.587175029271748e-05, "std": 0.06788700819015503, "max": 0.24170181155204773, "min": -0.23868338763713837}, "bias": {"mean": -0.007310344371944666, "std": 0.14029204845428467, "max": 0.2514007091522217, "min": -0.2337346076965332}}
{"epoch": 5, "layer": "Dense_0", "weights": {"mean": -5.436425271909684e-05, "std": 0.012538360431790352, "max": 0.07584609091281891, "min": -0.08576525002717972}, "bias": {"mean": 0.0020560312550514936, "std": 0.01914704404771328, "max": 0.05650610104203224, "min": -0.057582929730415344}}
{"epoch": 5, "layer": "Dense_2", "weights": {"mean": 1.5870813513174653e-05, "std": 0.0702430009841919, "max": 0.2501460313796997, "min": -0.2454867660999298}, "bias": {"mean": -0.007310342974960804, "std": 0.15389122068881989, "max": 0.28088653087615967, "min": -0.260951966047287}}
{"epoch": 6, "layer": "Dense_0", "weights": {"mean": -5.675102511304431e-05, "std": 0.012672923505306244, "max": 0.07747255265712738, "min": -0.08720524609088898}, "bias": {"mean": 0.0022430610843002796, "std": 0.02096126601099968, "max": 0.06129187345504761, "min": -0.06326707452535629}}
{"epoch": 6, "layer": "Dense_2", "weights": {"mean": 1.587036604178138e-05, "std": 0.07215407490730286, "max": 0.25652194023132324, "min": -0.2515702545642853}, "bias": {"mean": -0.007310380227863789, "std": 0.16605116426944733, "max": 0.30692797899246216, "min": -0.2861996591091156}}
{"epoch": 7, "layer": "Dense_0", "weights": {"mean": -6.055746416677721e-05, "std": 0.012796367518603802, "max": 0.07877349108457565, "min": -0.08806063234806061}, "bias": {"mean": 0.0024107431527227163, "std": 0.022787632420659065, "max": 0.06631096452474594, "min": -0.06929448992013931}}
{"epoch": 7, "layer": "Dense_2", "weights": {"mean": 1.5871317373239435e-05, "std": 0.07384584844112396, "max": 0.26284530758857727, "min": -0.2570962905883789}, "bias": {"mean": -0.007310435175895691, "std": 0.1779152750968933, "max": 0.3308250308036804, "min": -0.3108366131782532}}
{"epoch": 8, "layer": "Dense_0", "weights": {"mean": -6.506584759335965e-05, "std": 0.01290762610733509, "max": 0.08020804822444916, "min": -0.0887657031416893}, "bias": {"mean": 0.0025549428537487984, "std": 0.0244284737855196, "max": 0.07043879479169846, "min": -0.07552985846996307}}
{"epoch": 8, "layer": "Dense_2", "weights": {"mean": 1.5872390576987527e-05, "std": 0.07530231028795242, "max": 0.26800018548965454, "min": -0.2614649534225464}, "bias": {"mean": -0.007310447283089161, "std": 0.1882244497537613, "max": 0.35313868522644043, "min": -0.3314346969127655}}
{"epoch": 9, "layer": "Dense_0", "weights": {"mean": -6.845649477327242e-05, "std": 0.013011757284402847, "max": 0.08137685060501099, "min": -0.08924176543951035}, "bias": {"mean": 0.002697340212762356, "std": 0.02615056373178959, "max": 0.07492442429065704, "min": -0.08180074393749237}}
{"epoch": 9, "layer": "Dense_2", "weights": {"mean": 1.5874025848461315e-05, "std": 0.07661866396665573, "max": 0.2729279100894928, "min": -0.2656627893447876}, "bias": {"mean": -0.007310417480766773, "std": 0.1985052227973938, "max": 0.3740139305591583, "min": -0.3522646427154541}}
