{"epoch": 0, "layer": "Dense_0", "weights": {"mean": -1.9512517610564828e-05, "std": 0.010138556361198425, "max": 0.05201472342014313, "min": -0.05194304883480072}, "bias": {"mean": -0.0006364391301758587, "std": 0.009692256338894367, "max": 0.03588056564331055, "min": -0.025500917807221413}}
{"epoch": 0, "layer": "Dense_2", "weights": {"mean": -3.391093196114525e-05, "std": 0.010419880971312523, "max": 0.04652596265077591, "min": -0.0463736392557621}, "bias": {"mean": 0.00041930621955543756, "std": 0.010497543029487133, "max": 0.025321317836642265, "min": -0.027760334312915802}}
{"epoch": 0, "layer": "Dense_4", "weights": {"mean": -0.0004599333624355495, "std": 0.02396540716290474, "max": 0.10859064757823944, "min": -0.0911635160446167}, "bias": {"mean": 0.0012205534148961306, "std": 0.04700751230120659, "max": 0.11070437729358673, "min": -0.049666374921798706}}
{"epoch": 1, "layer": "Dense_0", "weights": {"mean": -3.2710700907045975e-05, "std": 0.010843900963664055, "max": 0.0621768943965435, "min": -0.06478167325258255}, "bias": {"mean": -0.0003543073544278741, "std": 0.010733891278505325, "max": 0.039595142006874084, "min": -0.03150930628180504}}
{"epoch": 1, "layer": "Dense_2", "weights": {"mean": -2.0784260414075106e-05, "std": 0.01253795251250267, "max": 0.055226340889930725, "min": -0.05740959569811821}, "bias": {"mean": -0.00025984615786001086, "std": 0.011959034018218517, "max": 0.03269075229763985, "min": -0.026660943403840065}}
{"epoch": 1, "layer": "Dense_4", "weights": {"mean": -0.0004599335079547018, "std": 0.05839194357395172, "max": 0.21495236456394196, "min": -0.1838516741991043}, "bias": {"mean": 0.0012205385137349367, "std": 0.09305470436811447, "max": 0.10821355134248734, "min": -0.22648118436336517}}
{"epoch": 2, "layer": "Dense_0", "weights": {"mean": -3.9512426155852154e-05, "std": 0.011212687939405441, "max": 0.072455994784832, "min": -0.06825412064790726}, "bias": {"mean": -5.292764399200678e-05, "std": 0.011524985544383526, "max": 0.04070096090435982, "min": -0.032857757061719894}}
{"epoch": 2, "layer": "Dense_2", "weights": {"mean": -1.5497224012506194e-05, "std": 0.013575010001659393, "max": 0.05957483872771263, "min": -0.06205284595489502}, "bias": {"mean": -0.0003027750353794545, "std": 0.012285236269235611, "max": 0.035382356494665146, "min": -0.035439446568489075}}
{"epoch": 2, "layer": "Dense_4", "weights": {"mean": -0.0004599334206432104, "std": 0.071906179189682, "max": 0.253825306892395, "min": -0.21023400127887726}, "bias": {"mean": 0.001220549689605832, "std": 0.11505096405744553, "max": 0.1894693225622177, "min": -0.25620684027671814}}
{"epoch": 3, "layer": "Dense_0", "weights": {"mean": -4.1502422391204163e-05, "std": 0.01144041121006012, "max": 0.07636056840419769, "min": -0.0765477865934372}, "bias": {"mean": 0.00015611693379469216, "std": 0.01268718671053648, "max": 0.04326386749744415, "min": -0.03592618554830551}}
{"epoch": 3, "layer": "Dense_2", "weights": {"mean": -1.387667543895077e-05, "std": 0.014178127981722355, "max": 0.06301148980855942, "min": -0.06512156128883362}, "bias": {"mean": -0.00028563174419105053, "std": 0.013394116424024105, "max": 0.03816695883870125, "min": -0.041580989956855774}}
{"epoch": 3, "layer": "Dense_4", "weights": {"mean": -0.0004599326348397881, "std": 0.07909475266933441, "max": 0.27380555868148804, "min": -0.22732476890087128}, "bias": {"mean": 0.0012205556267872453, "std": 0.13308128714561462, "max": 0.24094422161579132, "min": -0.2768551707267761}}
{"epoch": 4, "layer": "Dense_0", "weights": {"mean": -4.326449197833426e-05, "std": 0.011604475788772106, "max": 0.07682467252016068, "min": -0.08213920146226883}, "bias": {"mean": 0.00031100891646929085, "std": 0.013889113441109657, "max": 0.044725678861141205, "min": -0.03844214975833893}}
{"epoch": 4, "layer": "Dense_2", "weights": {"mean": -1.3384371413849294e-05, "std": 0.014593358151614666, "max": 0.06603991240262985, "min": -0.06734352558851242}, "bias": {"mean": -0.00024388183373957872, "std": 0.014666082337498665, "max": 0.04012271761894226, "min": -0.046376243233680725}}
{"epoch": 4, "layer": "Dense_4", "weights": {"mean": -0.00045993164530955255, "std": 0.08374175429344177, "max": 0.28607648611068726, "min": -0.24107511341571808}, "bias": {"mean": 0.0012205138336867094, "std": 0.149067223072052, "max": 0.28055843710899353, "min": -0.2926868498325348}}
{"epoch": 5, "layer": "Dense_0", "weights": {"mean": -4.4040836655767635e-05, "std": 0.011733110062777996, "max": 0.07709091156721115, "min": -0.08602436631917953}, "bias": {"mean": 0.0004343052569311112, "std": 0.015129510313272476, "max": 0.04543239623308182, "min": -0.040556639432907104}}
{"epoch": 5, "layer": "Dense_2", "weights": {"mean": -1.369727760902606e-05, "std": 0.014906132593750954, "max": 0.06868612766265869, "min": -0.06978211551904678}, "bias": {"mean": -0.0001680424902588129, "std": 0.016012364998459816, "max": 0.04124445840716362, "min": -0.05119437351822853}}
{"epoch": 5, "layer": "Dense_4", "weights": {"mean": -0.0004599324311129749, "std": 0.08703791350126266, "max": 0.2939000427722931, "min": -0.24965111911296844}, "bias": {"mean": 0.0012204929953441024, "std": 0.16215695440769196, "max": 0.3110716938972473, "min": -0.30526506900787354}}
{"epoch": 6, "layer": "Dense_0", "weights": {"mean": -4.292377343517728e-05, "std": 0.011835985817015171, "max": 0.07657565176486969, "min": -0.08863016963005066}, "bias": {"mean": 0.000549185206182301, "std": 0.016436249017715454, "max": 0.04600227624177933, "min": -0.04257120192050934}}
{"epoch": 6, "layer": "Dense_2", "weights": {"mean": -1.4148396985547151e-05, "std": 0.015145426616072655, "max": 0.07109396159648895, "min": -0.07201620191335678}, "bias": {"mean": -0.0001052781444741413, "std": 0.01745719648897648, "max": 0.04207448288798332, "min": -0.055441439151763916}}
{"epoch": 6, "layer": "Dense_4", "weights": {"mean": -0.000459933013189584, "std": 0.08938734233379364, "max": 0.2987891733646393, "min": -0.25846901535987854}, "bias": {"mean": 0.0012205049861222506, "std": 0.17662185430526733, "max": 0.3439742922782898, "min": -0.3188387453556061}}
{"epoch": 7, "layer": "Dense_0", "weights": {"mean": -4.369127782410942e-05, "std": 0.011931626126170158, "max": 0.07693427056074142, "min": -0.08970876783132553}, "bias": {"mean": 0.0006271426100283861, "std": 0.017513182014226913, "max": 0.048122793436050415, "min": -0.04518723860383034}}
{"epoch": 7, "layer": "Dense_2", "weights": {"mean": -1.4634018953074701e-05, "std": 0.015358971431851387, "max": 0.07348833233118057, "min": -0.07436519861221313}, "bias": {"mean": -8.238300506491214e-05, "std": 0.018710067495703697, "max": 0.04331003129482269, "min": -0.05910079926252365}}
{"epoch": 7, "layer": "Dense_4", "weights": {"mean": -0.00045992969535291195, "std": 0.09136655181646347, "max": 0.3024144768714905, "min": -0.2648618221282959}, "bias": {"mean": 0.0012205212842673063, "std": 0.1885555386543274, "max": 0.36928150057792664, "min": -0.3301462233066559}}
{"epoch": 8, "layer": "Dense_0", "weights": {"mean": -4.41221782239154e-05, "std": 0.012021319940686226, "max": 0.07920823246240616, "min": -0.09045924991369247}, "bias": {"mean": 0.0006807027384638786, "std": 0.01847665198147297, "max": 0.05006954446434975, "min": -0.05011959373950958}}
{"epoch": 8, "layer": "Dense_2", "weights": {"mean": -1.5349432942457497e-05, "std": 0.015551667660474777, "max": 0.07556011527776718, "min": -0.07599885016679764}, "bias": {"mean": -3.55789961759001e-05, "std": 0.019925611093640327, "max": 0.045083001255989075, "min": -0.06262227147817612}}
{"epoch": 8, "layer": "Dense_4", "weights": {"mean": -0.00045992652303539217, "std": 0.09303973615169525, "max": 0.3050163984298706, "min": -0.2689293622970581}, "bias": {"mean": 0.0012205600505694747, "std": 0.19954927265644073, "max": 0.39340776205062866, "min": -0.3396778106689453}}
{"epoch": 9, "layer": "Dense_0", "weights": {"mean": -4.2500876588746905e-05, "std": 0.01210947334766388, "max": 0.08119118213653564, "min": -0.09062743186950684}, "bias": {"mean": 0.000738298986107111, "std": 0.019430754706263542, "max": 0.051799558103084564, "min": -0.05445406958460808}}
{"epoch": 9, "layer": "Dense_2", "weights": {"mean": -1.577547845954541e-05, "std": 0.015735769644379616, "max": 0.07741162180900574, "min": -0.07770854234695435}, "bias": {"mean": -3.854854730889201e-05, "std": 0.02113088220357895, "max": 0.04870615154504776, "min": -0.06559375673532486}}
{"epoch": 9, "layer": "Dense_4", "weights": {"mean": -0.000459926959592849, "std": 0.09456709772348404, "max": 0.3077409565448761, "min": -0.27248838543891907}, "bias": {"mean": 0.001220549689605832, "std": 0.21033479273319244, "max": 0.4164712131023407, "min": -0.34996071457862854}}
